-2.171,-13.713
1.995,17.812
0.566,17.270
-3.013,-15.414
-1.157,-14.125
3.303,19.055
-4.853,-17.955
-0.858,-13.415
2.532,18.493
-1.733,-10.415
-1.358,-10.415
-0.189,-2.560
2.983,18.862
-1.278,-6.264
-0.888,-6.264
-0.869,-6.264
4.412,19.477
4.374,19.477
2.008,19.410
0.772,18.632
1.475,18.673
2.981,19.196
-1.872,-11.194
2.352,18.419
-2.508,-14.026
-1.276,-13.602
1.814,17.600
-2.857,-15.041
-0.280,-5.400
-1.724,-11.538
-0.511,-8.647
-5.597,-18.475
-3.543,-18.443
-1.400,-16.261
1.855,17.566
-0.347,9.800
0.006,9.800
1.376,16.747
-1.759,-10.698
0.567,11.271
-1.611,-9.724
-3.455,-16.288
-0.782,-12.337
1.148,15.472
0.677,15.472
-0.024,13.267
4.785,19.566
0.826,18.752
1.957,18.923
4.476,19.523
-2.588,-14.284
-2.078,-14.284
3.487,19.148
-1.596,-9.284
0.059,2.902
2.139,18.219
1.781,18.219
3.510,19.158
2.991,19.158
2.139,19.148
-1.545,-8.863
1.590,17.313
0.629,17.104
-2.653,-14.479
2.835,18.755
1.614,18.730
0.091,15.690
-0.466,7.975
-2.397,-13.640
0.399,8.783
0.937,14.481
-1.662,-10.092
2.324,18.315
-2.194,-12.867
-4.246,-17.376
2.079,17.945
-0.807,0.818
-0.252,1.057
-1.675,-10.080
-3.212,-15.838
2.510,18.472
-1.378,-7.433
3.322,19.065
1.615,19.002
-0.630,4.686
-2.172,-12.737
-1.465,-12.712
-2.425,-13.742
4.174,19.410
0.329,17.363
2.300,18.787
-2.535,-14.114
0.362,8.110
2.356,18.324
-0.670,3.665
2.062,18.043
-2.169,-12.781
-2.727,-14.693
0.759,13.053
-0.758,0.896
1.284,16.169
-3.956,-17.030
1.425,16.496
5.197,19.645
-0.049,14.730
0.068,14.730
0.359,14.730
-3.724,-16.713
0.852,13.652
-3.211,-15.930
-0.855,-12.836
2.486,18.447
-1.470,-8.341
1.002,15.097
2.025,17.938
0.557,17.358
-2.742,-14.735
-0.665,-10.750
3.919,19.325
-4.050,-17.149
-0.552,-10.193
-1.104,-10.292
0.241,5.460
1.496,16.718
3.217,19.008
-0.540,6.525
1.625,17.634
0.999,17.625
0.949,17.617
-1.128,-4.309
-1.995,-11.882
-2.200,-12.861
-1.513,-12.843
0.643,12.121
1.522,17.004
0.647,16.853
-1.098,-4.098
3.612,19.204
3.038,19.204
-0.708,3.099
-1.647,-9.681
0.260,6.892
2.535,18.614
0.666,18.016
1.113,18.016
-0.424,8.815
0.913,15.536
3.089,18.967
-0.479,7.789
0.287,10.220
0.508,12.600
0.567,13.159
-2.824,-14.954
-3.754,-16.756
-2.039,-16.559
0.336,7.309
1.108,15.226
-1.061,-4.036
2.755,18.692
-0.286,11.222
0.041,11.222
-0.388,9.450
0.268,10.555
1.409,17.189
1.331,17.189
-1.797,-10.795
3.047,18.904
-2.190,-12.817
0.158,4.396
-0.549,2.538
-2.098,-12.472
-0.150,-2.273
-1.482,-9.402
0.146,4.132
0.806,13.638
2.944,18.835
0.615,18.001
-1.222,-5.601
-0.783,-5.601
0.280,7.717
0.187,7.717
2.919,18.821
2.791,18.821
-0.718,2.808
-1.097,-3.910
-5.114,-18.157
-1.098,-14.955
-1.956,-15.182
-0.710,-12.188
0.783,12.997
0.354,12.997
-0.060,11.681
0.399,11.681
-0.252,9.649
0.394,10.450
-6.462,-18.907
-0.539,-10.318
-0.222,-4.916
-0.683,-4.916
-0.436,-4.916
1.407,16.437
-1.196,-5.689
4.401,19.474
1.377,19.211
-0.013,15.054
-0.413,9.206
-0.173,9.206
-1.831,-10.944
-0.190,-2.651
0.557,11.315
1.159,15.875
1.159,15.876
-0.550,5.748
-2.832,-14.976
-1.338,-14.390
3.224,19.012
1.792,18.985
0.739,18.342
-1.523,-8.698
0.007,1.909
-2.511,-14.038
-1.104,-13.158
-0.490,-8.513
-0.723,-8.513
1.913,17.769
-2.837,-14.990
-1.731,-14.898
-2.749,-14.965
-2.475,-14.965
0.248,5.885
-3.201,-15.816
1.508,16.803
-0.494,6.866
0.138,7.845
0.645,13.141
-0.868,-0.550
2.065,17.923
-0.389,9.189
1.188,16.358
-0.398,9.013
0.582,13.156
0.559,13.156
0.500,13.156
-1.949,-11.788
0.872,14.077
-0.638,3.497
1.261,16.078
-4.305,-17.440
-2.930,-17.425
0.727,12.476
3.726,19.252
1.670,19.166
-1.365,-7.142
-3.384,-16.163
1.485,16.709
-0.161,12.321
1.181,16.042
0.231,15.320
0.059,14.406
5.917,19.748
-0.012,15.112
-0.318,10.959
-0.243,10.959
-1.167,-4.768
1.980,18.096
-0.708,3.050
1.272,16.703
0.569,16.617
2.438,18.590
0.840,18.273
-2.427,-13.748
-2.653,-14.481
2.817,18.741
-1.217,-5.556
-2.641,-14.446
-1.339,-14.025
2.529,18.491
-2.840,-14.997
-1.733,-14.906
-1.334,-14.393
-2.502,-14.712
-2.369,-14.712
-3.036,-15.467
-0.922,-13.032
-0.710,-11.429
-1.365,-11.664
-3.307,-16.023
2.507,18.468
-2.658,-14.496
0.556,10.910
-2.150,-12.857
1.337,16.370
1.912,17.743
-1.755,-10.591
-3.847,-16.887
1.392,16.387
3.752,19.262
0.831,18.614
0.321,17.280
1.640,18.246
1.530,18.246
-1.658,-9.765
-1.318,-9.765
1.222,16.197
-0.288,10.605
2.633,18.689
-1.409,-7.626
1.501,17.123
0.685,17.018
-0.253,11.434
2.352,18.448
1.360,18.424
-2.010,-11.962
1.280,16.276
2.750,18.723
-0.261,11.663
-0.497,7.363
-1.339,-6.955
-0.027,1.528
1.372,16.735
-1.635,-9.644
-2.693,-14.596
-0.751,-11.477
-2.759,-14.783
1.046,15.083
-0.853,-0.504
-3.511,-16.381
-0.697,-11.600
-0.385,-7.569
0.898,14.029
-0.291,9.567
3.737,19.257
-1.037,-2.904
-0.125,0.865
-0.206,0.865
-0.565,0.865
0.285,8.246
1.082,15.889
2.680,18.773
-3.139,-15.689
-1.021,-13.670
-0.896,-12.950
1.876,17.605
-0.713,2.584
-3.790,-16.808
0.175,4.145
-0.067,4.145
0.360,7.719
-2.080,-12.877
3.438,19.124
-0.648,4.322
-0.377,4.322
-1.800,-10.751
-1.862,-11.136
-2.445,-13.814
-0.787,-11.423
-1.915,-12.668
4.113,19.391
-3.777,-16.789
-2.257,-16.699
-0.803,-12.664
1.347,16.232
-0.828,0.029
1.352,16.249
-1.974,-12.049
0.119,3.448
3.488,19.148
-1.935,-11.562
0.839,13.997
0.414,13.997
-4.503,-17.642
-1.178,-15.209
2.262,18.195
0.270,16.534
-2.425,-13.790
1.382,16.507
-0.958,-2.092
0.720,13.226
0.754,13.504
-2.237,-13.098
1.580,17.067
-2.015,-12.099
-2.612,-14.377
-1.766,-14.351
-0.692,-10.888
0.219,5.384
-1.545,-9.704
1.490,16.832
0.503,16.501
-1.390,-7.700
1.778,17.496
2.322,18.268
-0.197,12.433
-0.430,8.513
-3.548,-16.441
-0.815,-12.651
-0.583,-10.384
0.491,9.838
-0.337,7.351
0.488,9.816
3.068,18.918
-1.060,-3.336
-0.982,-3.336
-2.618,-14.377
-0.017,0.265
1.954,17.815
-3.502,-16.367
-1.332,-15.189
0.072,1.923
1.700,17.244
0.766,17.120
0.651,17.002
-0.449,7.829
0.964,15.229
2.029,17.867
-3.418,-16.223
1.457,16.622
-0.198,11.812
-1.060,-3.760
-4.886,-17.982
-2.761,-17.867
3.396,19.103
-1.377,-7.299
-2.170,-12.727
-0.913,-11.609
-1.490,-11.652
0.249,6.222
3.034,18.896
-1.173,-4.954
0.309,8.293
-2.294,-13.252
3.040,18.900
0.378,17.347
-2.164,-12.701
1.809,17.642
2.400,18.424
0.323,16.918
-3.279,-15.969
3.570,19.186
0.620,18.200
2.341,18.804
-1.102,-3.891
-0.797,-3.891
0.221,6.984
2.227,18.346
0.286,16.777
-2.514,-14.045
0.524,10.561
3.259,19.031
0.132,16.108
0.259,16.108
-2.525,-14.083
-2.806,-14.908
-1.275,-14.196
-0.653,-10.685
0.208,5.100
0.332,7.464
3.204,19.000
0.117,15.992
2.129,18.450
-0.079,14.208
2.898,18.889
-3.741,-16.737
-1.197,-14.926
1.966,17.765
-0.343,9.941
1.863,17.646
0.770,17.461
1.892,17.681
1.226,17.676
1.347,17.676
2.985,18.863
1.973,18.858
1.988,18.858
0.041,15.326
-1.164,-4.833
-1.319,-6.734
1.502,17.095
-4.877,-17.974
-2.614,-17.804
-1.927,-17.216
-0.495,-9.595
-5.263,-18.262
2.517,18.479
1.200,18.391
3.969,19.343
2.124,19.313
2.061,19.307
4.501,19.500
-1.142,-4.424
-3.007,-15.401
-0.465,-8.562
-1.650,-11.680
-0.514,-9.114
-2.100,-13.348
1.136,15.496
1.026,15.496
-0.054,13.050
0.623,13.653
-0.284,10.229
1.504,16.827
0.139,15.145
-0.531,6.151
1.859,17.597
2.522,18.483
2.675,18.625
-1.981,-11.858
-1.069,-11.552
-3.403,-16.197
-0.477,-8.929
0.832,13.556
-0.266,9.777
3.862,19.305
-0.812,1.063
-2.177,-12.760
1.137,15.640
0.300,15.224
1.099,15.587
0.608,15.585
0.488,15.535
-4.245,-17.375
-1.452,-16.008
-1.181,-15.099
-0.696,-11.879
-0.897,-11.879
0.826,13.358
1.202,15.650
-2.263,-13.389
1.374,16.326
1.172,16.326
0.932,16.326
-2.836,-15.125
0.881,13.886
0.165,13.505
1.922,17.689
3.569,19.185
3.176,19.185
0.225,16.770
-0.004,15.047
1.264,17.347
-2.230,-12.989
-2.901,-15.151
-0.945,-13.035
2.441,18.401
-0.662,3.836
3.005,18.877
-5.576,-18.463
-3.174,-18.371
-0.247,-5.439
1.776,17.410
-0.139,12.857
-0.191,12.186
-0.243,11.442
-3.526,-16.406
2.316,18.261
-1.366,-7.337
2.179,18.109
-0.141,13.124
2.136,18.075
0.687,17.672
-0.213,12.154
0.453,13.005
-2.946,-15.259
0.012,0.776
3.432,19.121
2.616,19.121
-1.970,-11.751
1.011,15.099
0.496,15.092
1.634,17.314
0.188,15.755
-0.467,7.653
2.661,18.667
0.433,17.447
2.511,18.600
1.949,18.600
-0.649,4.237
-0.334,4.237
3.860,19.304
0.383,17.554
-1.517,-8.618
-2.400,-13.653
1.948,17.841
0.321,16.611
-1.584,-9.303
1.349,16.551
0.319,15.904
-3.321,-16.048
1.177,15.632
2.666,18.618
5.120,19.632
0.070,15.856
0.465,15.856
3.213,19.230
0.337,17.454
0.551,17.454
-1.261,-5.970
-2.789,-14.862
1.825,17.575
-2.547,-14.194
2.281,18.219
-1.576,-9.290
0.530,11.000
-0.745,1.164
2.349,18.299
0.602,17.653
3.918,19.325
-2.167,-12.717
0.828,13.817
0.095,13.287
0.560,13.287
3.192,18.993
1.171,18.777
-2.295,-13.254
1.067,15.267
-0.831,-0.011
-0.947,-2.013
2.092,18.061
-1.205,-5.419
-0.759,-5.419
0.065,3.641
1.892,17.811
1.163,17.799
-0.469,7.737
-0.544,6.228
-2.320,-13.353
-1.520,-13.310
-1.309,-13.138
-0.299,-5.316
3.974,19.345
-1.351,-6.993
-0.592,-6.294
-4.105,-17.214
1.201,15.647
-3.155,-15.840
-1.813,-15.689
2.085,17.953
-4.210,-17.336
0.192,4.411
1.602,17.007
3.051,18.907
-1.840,-11.019
-1.248,-11.004
3.609,19.203
-0.050,14.581
-1.473,-8.212
-1.435,-8.212
-1.945,-11.615
-0.879,-10.766
2.176,18.218
1.776,18.218
-2.349,-13.462
0.429,9.278
-0.804,-0.410
1.565,17.092
-0.313,10.346
0.743,14.315
-0.317,10.272
-4.374,-17.513
0.094,2.253
-2.543,-14.678
1.494,16.711
-1.360,-7.529
-1.210,-7.529
-0.018,1.316
1.156,15.587
-0.339,9.366
3.284,19.045
3.298,19.052
3.431,19.121
-0.469,8.013
-2.964,-15.301
2.440,18.400
-0.833,0.454
0.076,5.111
1.257,16.474
-3.209,-15.832
3.258,19.031
1.750,18.996
0.705,18.291
1.782,18.510
1.114,18.501
0.234,16.739
-0.616,4.969
-1.478,-8.300
0.574,11.739
0.722,13.260
2.166,18.234
0.401,17.153
-1.706,-10.123
-3.152,-15.718
-0.255,-5.059
-0.055,-0.825
-0.196,-0.825
-3.061,-15.565
2.149,18.045
2.145,18.045
-1.647,-9.859
1.612,17.144
1.906,17.701
0.077,15.129
-1.897,-11.489
3.227,19.013
0.762,18.378
-0.502,7.313
1.546,17.498
3.244,19.023
-0.994,-2.279
1.383,16.907
3.886,19.314
-2.233,-13.002
-1.099,-12.457
-1.196,-12.457
-0.317,-5.527
-0.420,-5.527
0.602,11.642
-1.641,-9.962
-1.245,-9.962
0.603,11.653
0.310,11.653
1.748,17.517
0.819,17.414
1.544,17.454
-2.286,-13.218
-0.767,-10.992
3.697,19.240
0.784,18.533
1.495,18.574
0.545,18.049
0.851,18.049
-0.462,8.183
7.143,19.856
-0.792,1.478
-0.077,3.277
-4.850,-17.952
2.213,18.131
-1.105,-4.131
-0.122,0.379
-1.056,-3.644
-0.277,-1.871
-0.568,-1.871
-0.086,1.003
-0.106,1.003
-0.308,1.003
-0.336,1.003
2.617,18.574
1.763,18.570
1.775,18.570
-1.465,-8.270
2.514,18.491
2.263,18.491
-1.107,-4.097
3.048,18.905
-1.366,-7.236
-3.684,-16.654
2.203,18.119
-0.239,11.769
1.954,17.892
-1.508,-8.729
-2.524,-14.122
2.464,18.425
-2.815,-14.930
-3.122,-15.654
-3.851,-16.892
-5.589,-18.470
-2.078,-17.667
-4.339,-18.040
-0.071,-1.631
-4.473,-17.732
-2.189,-17.409
4.664,19.539
0.690,18.507
0.106,16.102
-3.242,-15.897
-0.491,-9.050
0.096,2.516
-3.210,-15.849
0.252,5.826
2.382,18.337
-0.697,3.114
-0.394,3.114
-4.084,-17.190
-2.798,-17.175
2.115,17.998
-1.323,-6.914
-1.859,-11.278
-1.385,-11.278
-0.115,-1.320
-2.317,-13.431
0.253,6.121
-2.720,-14.701
1.548,16.964
-2.114,-12.595
2.641,18.595
-0.020,14.658
-1.691,-10.106
1.823,17.639
-2.749,-14.754
-1.094,-13.543
-0.000,0.592
-0.242,0.592
-4.017,-17.108
-1.841,-16.608
0.336,7.270
-2.640,-14.792
2.533,18.494
0.990,18.286
-1.028,-2.930
-0.441,-2.671
3.723,19.251
1.872,19.204
0.760,18.501
-2.831,-14.973
3.259,19.031
2.105,19.025
-0.297,11.165
-1.099,-3.897
-0.376,-2.838
-2.404,-13.666
-0.942,-12.276
1.526,16.985
-3.615,-16.549
-0.628,-10.934
0.228,5.260
0.207,5.260
-2.358,-13.927
-2.364,-13.949
2.178,18.086
-2.449,-13.887
2.017,17.876
-0.965,-2.019
2.160,18.063
-0.842,0.180
-2.333,-13.480
1.713,17.354
-0.035,14.030
2.897,18.801
1.784,18.790
-0.459,8.135
-0.899,-0.698
0.047,4.379
0.380,9.899
-1.763,-10.560
1.684,17.405
-0.795,1.085
-0.846,0.115
-1.081,-3.806
0.462,10.588
-1.384,-7.500
0.270,7.224
5.533,19.698
-0.107,14.068
-0.868,0.029
-3.335,-16.075
0.100,2.593
-2.218,-13.488
-0.751,-11.300
0.303,6.788
-3.462,-16.299
0.315,6.983
0.609,11.385
-2.594,-14.489
-0.785,-11.793
-3.661,-16.620
3.151,18.969
0.661,18.178
-0.359,10.065
-0.327,10.065
2.263,18.452
-0.188,12.785
0.662,14.691
3.037,18.914
-0.692,3.361
-2.185,-12.796
-1.649,-12.796
2.857,18.772
0.183,16.331
-1.005,-2.502
1.947,17.956
1.996,18.019
-0.951,-1.625
-1.944,-11.637
-3.141,-15.694
-3.588,-16.506
-0.530,-9.740
-1.786,-12.662
3.717,19.249
0.117,16.087
-3.884,-16.937
2.837,18.757
0.323,17.061
1.410,17.768
1.364,17.768
0.593,17.624
1.047,17.624
0.478,17.455
-2.213,-12.915
0.733,13.008
2.048,18.015
-0.420,8.712
1.103,16.162
0.839,16.162
3.631,19.213
-0.506,7.295
-0.584,5.675
-0.234,5.675
-0.205,5.675
-4.545,-17.683
-1.285,-15.638
0.600,11.097
-0.017,10.776
-1.599,-10.187
-1.330,-10.187
-0.711,-9.352
-1.603,-10.219
-1.026,-10.191
-1.079,-10.191
1.791,17.440
2.033,17.873
1.867,17.873
0.853,17.699
-1.417,-7.903
1.920,17.704
-0.629,4.361
0.046,5.840
2.676,18.626
0.168,16.181
0.495,16.181
-2.826,-14.959
0.974,14.650
-1.960,-11.936
2.024,17.885
-0.369,9.542
-4.472,-17.612
-0.716,-12.123
-0.456,-8.942
0.971,14.413
1.341,16.210
-0.656,3.403
2.026,17.862
-6.334,-18.852
-1.428,-16.490
-2.225,-16.546
-2.508,-16.683
1.919,17.684
1.658,17.684
-1.552,-9.147
2.356,18.307
0.203,16.231
-0.843,0.225
-1.386,-7.541
-1.557,-9.115
0.946,14.710
1.300,16.359
0.477,16.140
-4.100,-17.209
0.593,11.071
1.131,15.316
-1.338,-7.478
0.087,3.294
-3.728,-16.745
-2.460,-16.717
-0.648,-11.235
-0.620,-10.919
0.703,12.326
-2.374,-13.888
-0.682,-10.799
-0.980,-10.799
1.056,14.937
2.842,18.761
3.442,19.126
-3.137,-15.685
-0.096,-1.730
-2.225,-13.525
-0.129,-2.447
0.846,13.709
0.163,13.396
-0.098,11.808
2.966,18.850
1.442,18.780
-0.545,6.389
0.048,7.027
1.742,17.790
1.220,17.789
-0.850,0.215
-3.550,-16.446
-2.369,-16.421
0.292,6.538
-3.573,-16.482
-0.305,-6.199
-0.907,-6.657
1.999,17.819
-2.636,-14.491
-3.864,-16.909
-0.839,-12.990
1.270,15.937
2.140,18.033
-1.819,-11.028
0.941,14.581
-2.223,-13.059
